{
  "features_info":
    {
      "float_features":
        [
          {
            "borders":
              [
                18.132499694824219,
                18.582000732421875,
                19.368000030517578,
                21.694499969482422,
                23.041999816894531,
                23.489999771118164,
                24.108499526977539,
                24.494998931884766,
                25.035499572753906,
                25.491500854492188,
                26.614500045776367,
                28.097000122070313,
                28.527999877929688,
                29.104999542236328,
                29.625,
                30.285999298095703,
                30.73699951171875,
                31.247499465942383,
                31.564498901367188,
                31.986000061035156,
                32.501998901367188,
                32.814498901367188,
                33.150501251220703,
                33.424999237060547,
                33.857498168945313,
                34.514999389648438,
                34.853000640869141,
                35.172996520996094,
                36.275001525878906,
                36.580001831054688,
                37.0364990234375,
                37.567001342773438,
                38.810501098632813,
                39.610000610351563,
                41.037498474121094,
                44.724502563476563,
                46.7864990234375,
                47.134002685546875,
                47.681999206542969,
                48.423999786376953,
                52.694000244140625,
                54.090000152587891,
                58.480499267578125,
                58.680000305175781,
                59.268501281738281,
                59.919998168945313,
                60.488998413085938,
                60.677501678466797,
                61.040000915527344,
                61.675498962402344,
                61.937000274658203,
                62.12750244140625,
                62.409999847412109,
                62.889999389648438,
                63.061500549316406,
                63.451499938964844,
                64.68499755859375,
                65.479995727539063,
                65.698997497558594,
                67.3125,
                67.96600341796875,
                68.306503295898438,
                68.479995727539063,
                68.8175048828125,
                69.276496887207031,
                69.439002990722656,
                69.694000244140625,
                69.912002563476563,
                70.43499755859375,
                71.009994506835938,
                71.3280029296875,
                71.561500549316406,
                71.824996948242188,
                72.104995727539063,
                72.354995727539063,
                73.82550048828125,
                74.184005737304688,
                74.356498718261719,
                111.15249633789063,
                121.20899963378906,
                136.58200073242188
              ],
            "feature_index":0,
            "flat_feature_index":0,
            "has_nans":false,
            "nan_value_treatment":"AsIs"
          },
          {
            "borders":
              [
                0.15349999070167542,
                0.21146053075790405,
                0.22209802269935608,
                0.23639455437660217,
                0.26828896999359131,
                0.28990590572357178,
                0.29412287473678589,
                0.30149999260902405,
                0.31077098846435547,
                0.3190000057220459,
                0.33100000023841858,
                0.33802893757820129,
                0.34350001811981201,
                0.3464999794960022,
                0.35151141881942749,
                0.35900002717971802,
                0.36299997568130493,
                0.36984902620315552,
                0.37286394834518433,
                0.37828978896141052,
                0.38249999284744263,
                0.38624948263168335,
                0.38949999213218689,
                0.39999997615814209,
                0.40491685271263123,
                0.40950000286102295,
                0.41850000619888306,
                0.42250001430511475,
                0.42649999260902405,
                0.43549999594688416,
                0.43849998712539673,
                0.44425660371780396,
                0.45249998569488525,
                0.46450001001358032,
                0.46954265236854553,
                0.4711458683013916,
                0.57503616809844971,
                0.77649998664855957,
                0.78550004959106445,
                0.82150000333786011,
                0.82482320070266724,
                0.82949995994567871,
                0.83763635158538818,
                0.84558004140853882,
                0.85150003433227539,
                0.85695505142211914,
                0.86249995231628418,
                0.87031900882720947,
                0.87540668249130249,
                0.88650000095367432,
                0.89750003814697266,
                0.89958178997039795,
                0.90427660942077637,
                0.90661364793777466,
                0.91271734237670898,
                0.91449999809265137,
                0.92949998378753662,
                0.9364999532699585,
                0.95550000667572021,
                0.97350001335144043,
                0.99181234836578369,
                1.0065000057220459
              ],
            "feature_index":1,
            "flat_feature_index":1,
            "has_nans":false,
            "nan_value_treatment":"AsIs"
          },
          {
            "borders":
              [
                -0.47499999403953552,
                -0.13100001215934753,
                0.10050000250339508,
                0.89899998903274536,
                1.0015000104904175,
                1.1024999618530273,
                1.3014999628067017,
                1.3450000286102295,
                1.3975000381469727,
                1.499000072479248,
                1.7060000896453857,
                1.7914999723434448,
                1.8075000047683716,
                1.9170000553131104,
                1.999500036239624,
                2.0485000610351563,
                2.1184999942779541,
                2.3055000305175781,
                2.4904999732971191,
                2.5455000400543213,
                2.5934998989105225,
                3.2994999885559082,
                3.501500129699707,
                4.2760000228881836,
                4.4005002975463867,
                4.6989998817443848,
                4.7039999961853027,
                4.9070000648498535,
                5.0310001373291016,
                5.1085000038146973,
                5.189000129699707,
                5.2910003662109375,
                5.3185000419616699,
                5.3959999084472656,
                5.493499755859375,
                5.5074996948242188,
                5.563499927520752,
                5.6024999618530273,
                5.675999641418457,
                5.7014999389648438,
                5.7410001754760742,
                5.7954998016357422,
                5.8129997253417969,
                5.8949999809265137,
                6.006500244140625,
                6.1964998245239258,
                6.2084999084472656,
                6.314000129699707,
                6.3959999084472656,
                6.4054999351501465,
                6.5085000991821289,
                6.5959997177124023,
                6.6024999618530273,
                6.685999870300293,
                6.9160003662109375,
                7.2795000076293945,
                7.6875,
                12.794500350952148,
                12.978500366210938,
                13.104000091552734,
                13.673000335693359,
                13.791999816894531,
                14.197999954223633,
                14.850000381469727
              ],
            "feature_index":2,
            "flat_feature_index":2,
            "has_nans":false,
            "nan_value_treatment":"AsIs"
          },
          {
            "borders":
              [
                3.9889998435974121,
                5.5077500343322754,
                5.6414999961853027,
                5.7375001907348633,
                5.8242502212524414,
                6.1149997711181641,
                6.251500129699707,
                6.3307499885559082,
                6.4149999618530273,
                6.4792499542236328,
                6.6949996948242188,
                6.8569998741149902,
                6.9514999389648438,
                7.2399997711181641,
                7.2975001335144043,
                7.3594999313354492,
                7.4169998168945313,
                7.7849998474121094,
                7.8474998474121094,
                7.932499885559082,
                8.0869998931884766,
                8.1275005340576172,
                8.1735000610351563,
                8.2124996185302734,
                8.305999755859375,
                8.4274997711181641,
                8.4974994659423828,
                8.5370006561279297,
                8.6030006408691406,
                8.7200002670288086,
                8.7947502136230469,
                8.8474998474121094,
                8.883000373840332,
                8.9209995269775391,
                8.9930000305175781,
                9.2969999313354492,
                9.3695001602172852,
                9.4814996719360352,
                9.6055002212524414,
                9.6900005340576172,
                10.052499771118164,
                10.275750160217285,
                10.701999664306641,
                10.862499237060547,
                10.923500061035156,
                10.994999885559082,
                11.109000205993652,
                11.205249786376953,
                11.702500343322754,
                11.951499938964844,
                12.095499992370605,
                12.131500244140625,
                12.34950065612793,
                12.842500686645508,
                13.022249221801758,
                13.051750183105469,
                13.452499389648438,
                13.579500198364258,
                13.637500762939453,
                14.047250747680664,
                14.202499389648438,
                14.252500534057617,
                14.334499359130859,
                14.441499710083008,
                14.494999885559082,
                14.547500610351563,
                14.803999900817871,
                15.11299991607666,
                15.15424919128418,
                15.207500457763672,
                15.270000457763672,
                15.420999526977539,
                15.565000534057617,
                15.652500152587891,
                15.739999771118164,
                15.795000076293945,
                15.867500305175781,
                15.954999923706055,
                16.052499771118164,
                16.112499237060547,
                16.185001373291016,
                16.268001556396484,
                16.340499877929688,
                16.413000106811523,
                16.531499862670898,
                16.635000228881836,
                16.708000183105469,
                16.847000122070313,
                16.94325065612793,
                17.045000076293945,
                17.253000259399414,
                17.359500885009766,
                17.513500213623047,
                17.637500762939453,
                17.742500305175781,
                17.817501068115234,
                17.904998779296875,
                17.985000610351563,
                18.104999542236328,
                18.2135009765625,
                18.345001220703125,
                18.502498626708984,
                18.604999542236328,
                18.792499542236328,
                18.967498779296875,
                19.134998321533203,
                19.417999267578125,
                19.547500610351563,
                19.666999816894531,
                19.902000427246094,
                20.047500610351563,
                20.159999847412109,
                20.282499313354492,
                20.444999694824219,
                20.625499725341797,
                20.852500915527344,
                21.123500823974609,
                21.340000152587891,
                21.611000061035156,
                21.852001190185547,
                22.458999633789063,
                25.125
              ],
            "feature_index":3,
            "flat_feature_index":3,
            "has_nans":false,
            "nan_value_treatment":"AsIs"
          },
          {
            "borders":
              [
                2.8924999237060547,
                2.9165000915527344,
                2.932499885559082,
                2.9580001831054688,
                2.9769999980926514,
                2.9825000762939453,
                3.000999927520752,
                3.0125000476837158,
                3.0225000381469727,
                3.0644998550415039,
                3.0714998245239258,
                3.0764999389648438,
                3.0794999599456787,
                3.0869998931884766,
                3.1005001068115234,
                3.1395001411437988,
                3.1725001335144043,
                3.1795001029968262,
                3.1974999904632568,
                3.2274999618530273,
                3.2649998664855957,
                3.2760000228881836,
                3.2899999618530273,
                3.2964999675750732,
                3.3460001945495605,
                3.373499870300293,
                3.3940000534057617,
                3.3994998931884766,
                3.499000072479248,
                3.5254998207092285,
                3.5515000820159912,
                3.6754999160766602,
                3.7220070362091064,
                4.3870000839233398,
                4.4010000228881836,
                4.4075002670288086,
                4.4370002746582031,
                4.445500373840332,
                4.499000072479248,
                4.501500129699707,
                4.5179996490478516,
                4.5500001907348633,
                4.5679998397827148,
                4.5839996337890625,
                4.6009998321533203,
                4.6310000419616699,
                4.6405000686645508,
                4.6540002822875977,
                4.6739997863769531,
                4.692500114440918,
                4.751500129699707,
                4.8024997711181641,
                4.8544998168945313,
                4.8689999580383301,
                4.9070000648498535,
                4.9279999732971191,
                4.9980001449584961,
                5.0039997100830078,
                5.0249996185302734,
                5.1350002288818359,
                5.1540002822875977,
                5.1934995651245117,
                5.2115001678466797,
                5.25,
                5.2985000610351563,
                5.307499885559082,
                5.3280000686645508,
                5.3990001678466797,
                5.6044998168945313,
                5.9499998092651367
              ],
            "feature_index":4,
            "flat_feature_index":4,
            "has_nans":false,
            "nan_value_treatment":"AsIs"
          },
          {
            "borders":
              [
                1.5
              ],
            "feature_index":5,
            "flat_feature_index":5,
            "has_nans":false,
            "nan_value_treatment":"AsIs"
          },
          {
            "borders":
              [
                0.060499999672174454,
                0.066500000655651093,
                0.069499999284744263,
                0.073499999940395355,
                0.076499998569488525,
                0.082499995827674866,
                0.085500001907348633,
                0.088500000536441803,
                0.092500001192092896,
                0.097499996423721313,
                0.10449999570846558,
                0.11249999701976776,
                0.12399999797344208,
                0.53750002384185791,
                0.56550002098083496,
                0.56999999284744263,
                0.57200002670288086,
                0.57850003242492676,
                0.58149999380111694,
                0.58350002765655518,
                0.58749997615814209,
                0.59049999713897705,
                0.59549999237060547,
                0.59899997711181641,
                0.60150003433227539,
                0.60650002956390381,
                0.61150002479553223,
                0.6184999942779541,
                0.62400001287460327,
                0.6315000057220459,
                0.63349997997283936,
                0.64250004291534424,
                0.65149998664855957,
                0.65549999475479126,
                0.6654999852180481,
                0.6679999828338623,
                0.67500001192092896,
                0.68350005149841309,
                0.6864999532699585,
                0.69149994850158691,
                0.69900000095367432,
                0.71950000524520874,
                0.72650003433227539,
                0.73150002956390381,
                0.73450005054473877,
                0.73650002479553223,
                0.74150002002716064,
                0.74800002574920654,
                0.75150001049041748,
                0.77549999952316284,
                0.78349995613098145,
                0.80550003051757813,
                0.81449997425079346,
                0.8255000114440918,
                0.83650004863739014,
                0.84850001335144043,
                0.85249996185302734,
                0.85600000619888306,
                0.85950005054473877,
                0.86249995231628418,
                0.86650002002716064,
                0.86950004100799561,
                0.87400001287460327,
                0.87650001049041748,
                0.8815000057220459,
                0.88650000095367432,
                0.88950002193450928,
                0.8945000171661377,
                0.89550000429153442,
                0.90100002288818359,
                0.92350000143051147,
                0.93949997425079346,
                0.94499999284744263,
                0.95149999856948853,
                0.96650004386901855
              ],
            "feature_index":6,
            "flat_feature_index":6,
            "has_nans":false,
            "nan_value_treatment":"AsIs"
          }
        ]
    },
  "model_info":
    {
      "catboost_version_info":"Git info:\n    Commit: 9807fe7f2feac62fa0f791f6bc39f3b9d87d3c28\n    Branch: heads/master\n    Author: arcadia-devtools <arcadia-devtools@yandex-team.ru>\n    Summary: intermediate changes ref:4e618b6ea7baa25e4b8acf26d4ad99e5f79c487c\n    git-svn info:\n    Last Changed Rev: 6149120\n\nOther info:\n    Build by: zomb-ml-platform-msk\n    Top src dir: /Users/zomb-ml-platform-msk/Library/Application Support/Go Agent/pipelines/BuildMaster/catboost.git\n    Top build dir: /Users/zomb-ml-platform-msk/.ya/build\n    Hostname: zomb-ml-platform-msk-macmini.zombie.yandex.net\n    Host information: \n        Darwin zomb-ml-platform-msk-macmini.zombie.yandex.net 17.6.0 Darwin Kernel Version 17.6.0: Tue May  8 15:22:16 PDT 2018; root:xnu-4570.61.1~1/RELEASE_X86_64 x86_64\n\n    ",
      "model_guid":"b327731e-7c2b3cf7-e6d5c236-f7906a9d",
      "multiclass_params":
        {
          "class_names":
            [
              "1",
              "2",
              "3",
              "4",
              "5",
              "6",
              "7",
              "8",
              "9"
            ],
          "class_to_label":
            [
              0,
              1,
              2,
              3,
              4,
              5,
              6,
              7,
              8
            ],
          "classes_count":0
        },
      "output_options":"{\"name\":\"experiment\",\"verbose\":0,\"test_error_log\":\"test_error.tsv\",\"json_log\":\"catboost_training.json\",\"result_model_file\":\"model\",\"roc_file\":\"\",\"eval_file_name\":\"\",\"use_best_model\":true,\"allow_writing_files\":true,\"prediction_type\":[\"RawFormulaVal\"],\"fstr_internal_file\":\"\",\"output_columns\":[\"SampleId\",\"RawFormulaVal\",\"Label\"],\"snapshot_interval\":600,\"time_left_log\":\"time_left.tsv\",\"fstr_type\":\"FeatureImportance\",\"profile_log\":\"catboost_profile.log\",\"train_dir\":\"catboost_info\",\"learn_error_log\":\"learn_error.tsv\",\"training_options_file\":\"\",\"snapshot_file\":\"experiment.cbsnapshot\",\"save_snapshot\":false,\"model_format\":[\"CatboostBinary\"],\"final_feature_calcer_computation_mode\":\"Default\",\"metric_period\":1,\"output_borders\":\"\",\"final_ctr_computation_mode\":\"Default\",\"best_model_min_trees\":1,\"fstr_regular_file\":\"\"}",
      "params":
        {
          "boosting_options":
            {
              "approx_on_full_history":false,
              "boost_from_average":false,
              "boosting_type":"Plain",
              "fold_len_multiplier":2,
              "fold_permutation_block":0,
              "iterations":1500,
              "learning_rate":0.0099999997759999994,
              "model_shrink_rate":0,
              "od_config":
                {
                  "stop_pvalue":0,
                  "type":"Iter",
                  "wait_iterations":200
                },
              "permutation_count":4
            },
          "cat_feature_params":
            {
              "combinations_ctrs":
                [
                  {
                    "ctr_binarization":
                      {
                        "border_count":15,
                        "border_type":"Uniform"
                      },
                    "ctr_type":"Borders",
                    "prior_estimation":"No",
                    "priors":
                      [
                        [
                          0,
                          1
                        ],
                        [
                          0.5,
                          1
                        ],
                        [
                          1,
                          1
                        ]
                      ],
                    "target_binarization":
                      {
                        "border_count":8,
                        "border_type":"MinEntropy"
                      }
                  },
                  {
                    "ctr_binarization":
                      {
                        "border_count":15,
                        "border_type":"Uniform"
                      },
                    "ctr_type":"Counter",
                    "prior_estimation":"No",
                    "priors":
                      [
                        [
                          0,
                          1
                        ]
                      ]
                  }
                ],
              "counter_calc_method":"SkipTest",
              "ctr_leaf_count_limit":18446744073709551615,
              "max_ctr_complexity":4,
              "one_hot_max_size":2,
              "per_feature_ctrs":
                {
                },
              "simple_ctrs":
                [
                  {
                    "ctr_binarization":
                      {
                        "border_count":15,
                        "border_type":"Uniform"
                      },
                    "ctr_type":"Borders",
                    "prior_estimation":"No",
                    "priors":
                      [
                        [
                          0,
                          1
                        ],
                        [
                          0.5,
                          1
                        ],
                        [
                          1,
                          1
                        ]
                      ],
                    "target_binarization":
                      {
                        "border_count":8,
                        "border_type":"MinEntropy"
                      }
                  },
                  {
                    "ctr_binarization":
                      {
                        "border_count":15,
                        "border_type":"Uniform"
                      },
                    "ctr_type":"Counter",
                    "prior_estimation":"No",
                    "priors":
                      [
                        [
                          0,
                          1
                        ]
                      ]
                  }
                ],
              "store_all_simple_ctr":false,
              "target_binarization":
                {
                  "border_count":1,
                  "border_type":"MinEntropy"
                }
            },
          "data_processing_options":
            {
              "allow_const_label":false,
              "class_names":
                [
                  "1",
                  "2",
                  "3",
                  "4",
                  "5",
                  "6",
                  "7",
                  "8",
                  "9"
                ],
              "class_weights":
                [
                ],
              "classes_count":0,
              "dev_default_value_fraction_for_sparse":0.82999998330000002,
              "dev_group_features":false,
              "dev_leafwise_scoring":false,
              "dev_sparse_array_indexing":"Indices",
              "float_features_binarization":
                {
                  "border_count":254,
                  "border_type":"GreedyLogSum",
                  "nan_mode":"Min"
                },
              "has_time":false,
              "ignored_features":
                [
                ],
              "per_float_feature_quantization":
                {
                },
              "target_border":null,
              "text_processing_options":
                {
                  "dictionaries":
                    [
                      {
                        "dictionary_id":"BiGram",
                        "gram_order":"2",
                        "max_dict_size":"50000",
                        "min_token_occurrence":"5",
                        "token_level_type":"Word"
                      },
                      {
                        "dictionary_id":"Word",
                        "max_dict_size":"50000",
                        "min_token_occurrence":"5",
                        "token_level_type":"Word"
                      }
                    ],
                  "text_processing":
                    {
                      "default":
                        [
                          {
                            "dictionaries_names":
                              [
                                "BiGram",
                                "Word"
                              ],
                            "feature_calcer":"BoW"
                          },
                          {
                            "dictionaries_names":
                              [
                                "Word"
                              ],
                            "feature_calcer":"NaiveBayes"
                          }
                        ]
                    }
                }
            },
          "detailed_profile":false,
          "flat_params":
            {
              "custom_metric":
                [
                  "AUC"
                ],
              "depth":1,
              "eval_metric":"Accuracy",
              "iterations":1500,
              "learning_rate":0.01,
              "logging_level":"Silent",
              "loss_function":"MultiClass",
              "od_wait":200,
              "use_best_model":true,
              "verbose":0
            },
          "logging_level":"Silent",
          "loss_function":
            {
              "params":
                {
                },
              "type":"MultiClass"
            },
          "metadata":
            {
            },
          "metrics":
            {
              "custom_metrics":
                [
                  {
                    "params":
                      {
                      },
                    "type":"AUC"
                  }
                ],
              "eval_metric":
                {
                  "params":
                    {
                    },
                  "type":"Accuracy"
                },
              "objective_metric":
                {
                  "params":
                    {
                    },
                  "type":"MultiClass"
                }
            },
          "random_seed":0,
          "system_options":
            {
              "file_with_hosts":"hosts.txt",
              "node_port":0,
              "node_type":"SingleHost",
              "thread_count":4,
              "used_ram_limit":""
            },
          "task_type":"CPU",
          "tree_learner_options":
            {
              "bayesian_matrix_reg":0.1000000015,
              "bootstrap":
                {
                  "bagging_temperature":1,
                  "type":"Bayesian"
                },
              "depth":1,
              "dev_efb_max_buckets":1024,
              "dev_leafwise_approxes":false,
              "dev_score_calc_obj_block_size":5000000,
              "l2_leaf_reg":3,
              "leaf_estimation_backtracking":"AnyImprovement",
              "leaf_estimation_iterations":1,
              "leaf_estimation_method":"Newton",
              "model_size_reg":0.5,
              "monotone_constraints":
                {
                },
              "random_strength":1,
              "rsm":1,
              "sampling_frequency":"PerTree",
              "score_function":"Cosine",
              "sparse_features_conflict_fraction":0
            }
        },
      "train_finish_time":"2020-01-14T13:51:42Z"
    },
  "oblivious_trees":
    [
      {
        "leaf_values":
          [
            0.0020444443987390677,
            0.031644443737127242,
            0.024088888350451587,
            -0.0096444442288827741,
            -0.0093777775681765721,
            -0.0097333331157848455,
            -0.0098222220026869186,
            -0.0093333331247255381,
            -0.0098666664461379491,
            -0.0098760328371111181,
            -0.0096280989583553515,
            -0.0092148758270957365,
            0.0011157024543946134,
            0.0019008264037878267,
            0.014049586462820222,
            -0.0040909089994764988,
            0.017975206209786446,
            -0.002231404908808333
          ],
        "leaf_weights":
          [
            1998,
            2151
          ],
        "splits":
          [
            {
              "border":1.5,
              "float_feature_index":5,
              "split_index":399,
              "split_type":"FloatFeature"
            }
          ]
      },
      {
        "leaf_values":
          [
            0.0022520584125145147,
            0.030599351903453722,
            0.023522567644348666,
            -0.0094105733925608347,
            -0.0091414898407300611,
            -0.0095002993829911304,
            -0.0095900411134015769,
            -0.0090966563489161927,
            -0.0096349178817372854,
            -0.0097857961537874474,
            -0.0095355126860924289,
            -0.0091186458778325895,
            0.0011929913969204603,
            0.0019680723996321537,
            0.013808279453280989,
            -0.0039776966661175606,
            0.01757319780382904,
            -0.002124889669819721
          ],
        "leaf_weights":
          [
            1998,
            2151
          ],
        "splits":
          [
            {
              "border":1.5,
              "float_feature_index":5,
              "split_index":399,
              "split_type":"FloatFeature"
            }
          ]
      },
      {
        "leaf_values":
          [
            0.0024452888019417074,
            0.029627579570612923,
            0.022985612815725288,
            -0.0091914195771996519,
            -0.0089198988103124776,
            -0.0092819903096429002,
            -0.0093725929680545973,
            -0.0088746732496599971,
            -0.0094179062734187739,
            -0.0096993603309414225,
            -0.0094467059703194061,
            -0.009026167382263816,
            0.0012666310453544913,
            0.0020318242732656894,
            0.013575325188648435,
            -0.00386832945011249,
            0.017189049777349898,
            -0.002022267151010075
          ],
        "leaf_weights":
          [
            1998,
            2151
          ],
        "splits":
          [
            {
              "border":1.5,
              "float_feature_index":5,
              "split_index":399,
              "split_type":"FloatFeature"
            }
          ]
      },
      {
        "leaf_values":
          [
            0.002625494488504868,
            0.02872171879526076,
            0.022475859114218306,
            -0.0089856138012821673,
            -0.0087116354482504824,
            -0.0090770369476774401,
            -0.0091685086616813752,
            -0.0086660147975872927,
            -0.0092142627415316581,
            -0.0096164989820355703,
            -0.0093614522745802814,
            -0.0089372137021039456,
            0.0013368445367331323,
            0.0020923020801764608,
            0.013350305649967078,
            -0.0037625825323270379,
            0.016821606995843945,
            -0.0019233117717038009
          ],
        "leaf_weights":
          [
            1998,
            2151
          ],
        "splits":
          [
            {
              "border":1.5,
              "float_feature_index":5,
              "split_index":399,
              "split_type":"FloatFeature"
            }
          ]
      },
      {
        "leaf_values":
          [
            0.0027938684573970939,
            0.027875325710451933,
            0.02199134345276111,
            -0.0087919537173312169,
            -0.0085154973513016478,
            -0.0088842369862027343,
            -0.0089765859297789297,
            -0.0084694785874206216,
            -0.0090227850486002039,
            -0.0095370035204500412,
            -0.0092795428604216523,
            -0.0088515759962155757,
            0.0014038373367123579,
            0.0021497082875129273,
            0.013132829758305761,
            -0.0036602488511662886,
            0.016469811535824327,
            -0.0018278156900949259
          ],
        "leaf_weights":
          [
            1998,
            2151
          ],
        "splits":
          [
            {
              "border":1.5,
              "float_feature_index":5,
              "split_index":399,
              "split_type":"FloatFeature"
            }
          ]
      },
      {
        "leaf_values":
          [
            0.0029514625075093381,
            0.027082768729696578,
            0.021530282397900748,
            -0.0086093787692288117,
            -0.0083304239003543328,
            -0.0087025299083649393,
            -0.0087957643047274318,
            -0.0082840039969015004,
            -0.0088424127555209921,
            -0.0094606814278798187,
            -0.0092007850559085499,
            -0.008769061489357334,
            0.0014677989611328014,
            0.0022042294923168707,
            0.01292253128506827,
            -0.003561137374247235,
            0.016132692685728714,
            -0.0017355870768321578
          ],
        "leaf_weights":
          [
            1998,
            2151
          ],
        "splits":
          [
            {
              "border":1.5,
              "float_feature_index":5,
              "split_index":399,
              "split_type":"FloatFeature"
            }
          ]
      },
      {
        "leaf_values":
          [
            0.0030992076678018725,
            0.026339104544655614,
            0.021091052797706001,
            -0.008436949699147803,
            -0.0081554757684933095,
            -0.0085309764979115913,
            -0.0086251046219863719,
            -0.0081086516950534173,
            -0.0086722067275790665,
            -0.0093873547223337125,
            -0.0091250007237308663,
            -0.0086894919404988478,
            0.0015289044990730298,
            0.002256037941463558,
            0.012719066948167651,
            -0.0034650715692743509,
            0.015809358154762695,
            -0.0016464485876165919
          ],
        "leaf_weights":
          [
            1998,
            2151
          ],
        "splits":
          [
            {
              "border":1.5,
              "float_feature_index":5,
              "split_index":399,
              "split_type":"FloatFeature"
            }
          ]
      },
      {
        "leaf_values":
          [
            0.0032379311458177597,
            0.02563997615665075,
            0.020672174727900349,
            -0.0082738315351374679,
            -0.0079898179095292277,
            -0.0083687418264672773,
            -0.0084637720070692129,
            -0.0079425866308679184,
            -0.008511332121273852,
            -0.0093168585992728249,
            -0.0090520249024334098,
            -0.0086127022842438835,
            0.0015873159637106082,
            0.0023052928796070157,
            0.01252211467586182,
            -0.0033718880477130531,
            0.015498986322931226,
            -0.0015602360084307023
          ],
        "leaf_weights":
          [
            1998,
            2151
          ],
        "splits":
          [
            {
              "border":1.5,
              "float_feature_index":5,
              "split_index":399,
              "split_type":"FloatFeature"
            }
          ]
      },
      {
        "leaf_values":
          [
            0.0033683704807509311,
            0.024981528506763145,
            0.020272296468689149,
            -0.0081192793844654283,
            -0.0078327053521264189,
            -0.0082150810466214367,
            -0.0083110216683776467,
            -0.0077850638275664,
            -0.0083590441770270835,
            -0.0092490402233585452,
            -0.0089817045982527825,
            -0.0085385394228395407,
            0.0016431834933975848,
            0.002352141747518494,
            0.012331372021946292,
            -0.0032814353587774228,
            0.01520081939128212,
            -0.0014767970509360843
          ],
        "leaf_weights":
          [
            1998,
            2151
          ],
        "splits":
          [
            {
              "border":1.5,
              "float_feature_index":5,
              "split_index":399,
              "split_type":"FloatFeature"
            }
          ]
      },
      {
        "leaf_values":
          [
            0.0034911854279276937,
            0.024360338261176243,
            0.019890181257303755,
            -0.007972626503910717,
            -0.0076834712707593488,
            -0.0080693274620062989,
            -0.0081661869670697391,
            -0.0076354164536693173,
            -0.0082146762889494657,
            -0.0091837576515443938,
            -0.0089138977082815728,
            -0.0084668611495024842,
            0.0016966464221171401,
            0.0023967212499652409,
            0.012146554717715094,
            -0.0031935729144986174,
            0.014914157312845549,
            -0.0013959902788264731
          ],
        "leaf_weights":
          [
            1998,
            2151
          ],
        "splits":
          [
            {
              "border":1.5,
              "float_feature_index":5,
              "split_index":399,
              "split_type":"FloatFeature"
            }
          ]
      },
      {
        "leaf_values":
          [
            0.0036069679902407813,
            0.023773355057066906,
            0.019524695591643486,
            -0.0078332742299411732,
            -0.0075415169164488021,
            -0.0079308824572927959,
            -0.0080286693468783598,
            -0.0074930457538274061,
            -0.0080776299345717562,
            -0.0091208788711471811,
            -0.0088484720586126542,
            -0.0083975351867112639,
            0.001747834235592967,
            0.0024391583093892897,
            0.011967395347471843,
            -0.0031081700295526528,
            0.014638352402384883,
            -0.0013176841488268126
          ],
        "leaf_weights":
          [
            1998,
            2151
          ],
        "splits":
          [
            {
              "border":1.5,
              "float_feature_index":5,
              "split_index":399,
              "split_type":"FloatFeature"
            }
          ]
      },
      {
        "leaf_values":
          [
            0.003716250927109943,
            0.023217852085241509,
            0.01917479888884413,
            -0.0077006834369761955,
            -0.0074063030755031657,
            -0.0077992069563003604,
            -0.0078979297920725531,
            -0.0073574125076436101,
            -0.0079473661327322392,
            -0.0090602809386628094,
            -0.0087853045432152634,
            -0.0083304383252206203,
            0.0017968674272134475,
            0.0024795709195341632,
            0.011793642135924026,
            -0.003025105061630643,
            0.01437280453817699,
            -0.0012417561521370715
          ],
        "leaf_weights":
          [
            1998,
            2151
          ],
        "splits":
          [
            {
              "border":1.5,
              "float_feature_index":5,
              "split_index":399,
              "split_type":"FloatFeature"
            }
          ]
      },
      {
        "leaf_values":
          [
            0.0038195150052530475,
            0.02269138432356967,
            0.018839534327569435,
            -0.007574367258485184,
            -0.0072773427910232183,
            -0.0076738141429648302,
            -0.0077734815482967453,
            -0.007228029751248281,
            -0.0078233981643541003,
            -0.0090018492072354555,
            -0.0087242803514640671,
            -0.0082654556517164166,
            0.0018438582657935223,
            0.0025180689110305488,
            0.011625057836813418,
            -0.002944264640293061,
            0.014116956881307211,
            -0.0011680920442738068
          ],
        "leaf_weights":
          [
            1998,
            2151
          ],
        "splits":
          [
            {
              "border":1.5,
              "float_feature_index":5,
              "split_index":399,
              "split_type":"FloatFeature"
            }
          ]
      },
      {
        "leaf_values":
          [
            0.003917195204312795,
            0.022191753074559603,
            0.018518020725404063,
            -0.0074538848570862969,
            -0.0071541951333545621,
            -0.0075542632313247383,
            -0.0076548838924491939,
            -0.0071044565478114042,
            -0.0077052853422719877,
            -0.0089454766322215364,
            -0.0086652922737548935,
            -0.0082024798545548162,
            0.0018889114856781568,
            0.0025547546394356852,
            0.011461418713342972,
            -0.0028655429737653106,
            0.013870292048612603,
            -0.0010965851527758247
          ],
        "leaf_weights":
          [
            1998,
            2151
          ],
        "splits":
          [
            {
              "border":1.5,
              "float_feature_index":5,
              "split_index":399,
              "split_type":"FloatFeature"
            }
          ]
      },
      {
        "leaf_values":
          [
            0.0040096860499437394,
            0.021716975724606659,
            0.018209445322314794,
            -0.0073388360704095806,
            -0.0070364598462530313,
            -0.0074401541112879069,
            -0.0075417367783549355,
            -0.0069862926337602915,
            -0.0075926276568591506,
            -0.0088910631457980883,
            -0.0086082400761627494,
            -0.0081414105985291065,
            0.0019321249081871582,
            0.0025897236047175993,
            0.011302513601831703,
            -0.002788841224644597,
            0.013632328684143356,
            -0.0010271357537520898
          ],
        "leaf_weights":
          [
            1998,
            2151
          ],
        "splits":
          [
            {
              "border":1.5,
              "float_feature_index":5,
              "split_index":399,
              "split_type":"FloatFeature"
            }
          ]
      },
      {
        "leaf_values":
          [
            0.0040973462147975695,
            0.021265259849544534,
            0.017913057357992652,
            -0.0072288567917699548,
            -0.0069237727278258793,
            -0.0073311227292205475,
            -0.007433676217276532,
            -0.006873173799766057,
            -0.0074850611565000242,
            -0.0088385150926106673,
            -0.0085530299361339761,
            -0.0080821539606727791,
            0.0019735900023639475,
            0.0026230650101369633,
            0.011148143051033215,
            -0.0027140669465295763,
            0.013402618381685185,
            -0.00095965050929173697
          ],
        "leaf_weights":
          [
            1998,
            2151
          ],
        "splits":
          [
            {
              "border":1.5,
              "float_feature_index":5,
              "split_index":399,
              "split_type":"FloatFeature"
            }
          ]
      },
      {
        "leaf_values":
          [
            0.004180502502676842,
            0.020834980955085122,
            0.017628162345973794,
            -0.0071236149699558026,
            -0.0068158016305499801,
            -0.0072268370876635533,
            -0.0073303702775582421,
            -0.0067647678908028279,
            -0.0073822539472016809,
            -0.008787744719685334,
            -0.0084995739324403158,
            -0.008024621920311923,
            0.0020133923917660364,
            0.0026548622672604117,
            0.010998118530127712,
            -0.0026411335748083645,
            0.013180742917049026,
            -0.0008940419589787839
          ],
        "leaf_weights":
          [
            1998,
            2151
          ],
        "splits":
          [
            {
              "border":1.5,
              "float_feature_index":5,
              "split_index":399,
              "split_type":"FloatFeature"
            }
          ]
      },
      {
        "leaf_values":
          [
            0.0042594533107056824,
            0.020424663270691298,
            0.017354116960152478,
            -0.0070228071329377396,
            -0.0067122429851877979,
            -0.0071269937689764761,
            -0.0072315156082128533,
            -0.006660771330098186,
            -0.0072839027161507508,
            -0.008738669714532488,
            -0.008447789583322568,
            -0.007968731897305412,
            0.0020516123133375061,
            0.0026851934531361634,
            0.010852261699251875,
            -0.0025699599655481698,
            0.012966311754428183,
            -0.00083022805945811814
          ],
        "leaf_weights":
          [
            1998,
            2151
          ],
        "splits":
          [
            {
              "border":1.5,
              "float_feature_index":5,
              "split_index":399,
              "split_type":"FloatFeature"
            }
          ]
      },
      {
        "leaf_values":
          [
            0.0043344716479161039,
            0.020032963119263853,
            0.017090324460301322,
            -0.0069261553568099781,
            -0.0066128187699107579,
            -0.0070313149042246061,
            -0.0071368344077536779,
            -0.0065609060882868952,
            -0.0071897297005226691,
            -0.008691212786201892,
            -0.0083975994275813978,
            -0.0079144063332300969,
            0.0020883250335736051,
            0.0027141317248384764,
            0.010710403736966391,
            -0.0025004699772546934,
            0.012758959795691195,
            -0.00076813176682817043
          ],
        "leaf_weights":
          [
            1998,
            2151
          ],
        "splits":
          [
            {
              "border":1.5,
              "float_feature_index":5,
              "split_index":399,
              "split_type":"FloatFeature"
            }
          ]
      },
      {
        "leaf_values":
          [
            0.0044058077754527188,
            0.019658654468545207,
            0.016836230592809857,
            -0.0068334046145242609,
            -0.0065172738591921181,
            -0.0069395455218615809,
            -0.0070460717728328941,
            -0.0064649170323358394,
            -0.0070994800360970117,
            -0.0086453012846680888,
            -0.0083489306439978664,
            -0.007861572310887438,
            0.0021236012265759118,
            0.0027417456959731475,
            0.010572384719640998,
            -0.0024325920908890232,
            0.01255834534547217,
            -0.00070768065725113007
          ],
        "leaf_weights":
          [
            1998,
            2151
          ],
        "splits":
          [
            {
              "border":1.5,
              "float_feature_index":5,
              "split_index":399,
              "split_type":"FloatFeature"
            }
          ]
      },
      {
        "leaf_values":
          [
            0.0044736915228769988,
            0.019300616337620435,
            0.016591319911143061,
            -0.00674432044973377,
            -0.0064253736977993936,
            -0.0068514512215316339,
            -0.0069589933720012962,
            -0.0063725695995574452,
            -0.0070129194309992374,
            -0.0086008668545242608,
            -0.0083017147050606522,
            -0.0078101612081169797,
            0.0021575073179947463,
            0.0027680997791368653,
            0.010438053048185821,
            -0.002366259064129819,
            0.012364148268292166,
            -0.00064880658177209061
          ],
        "leaf_weights":
          [
            1998,
            2151
          ],
        "splits":
          [
            {
              "border":1.5,
              "float_feature_index":5,
              "split_index":399,
              "split_type":"FloatFeature"
            }
          ]
      },
      {
        "leaf_values":
          [
            0.0045383343261289526,
            0.018957821786487666,
            0.016355112467516676,
            -0.0066586869300238934,
            -0.0063369022541545162,
            -0.0067668161272576542,
            -0.0068753833988637984,
            -0.0062836477509943464,
            -0.0069298321188399868,
            -0.0085578451194069059,
            -0.0082558870614194702,
            -0.007760108382332577,
            0.0021901057984207444,
            0.0027932544978879923,
            0.010307264918038796,
            -0.0023014076163080464,
            0.012176068316921092,
            -0.00059144535177923661
          ],
        "leaf_weights":
          [
            1998,
            2151
          ],
        "splits":
          [
            {
              "border":1.5,
              "float_feature_index":5,
              "split_index":399,
              "split_type":"FloatFeature"
            }
          ]
      },
      {
        "leaf_values":
          [
            0.0045999310256575922,
            0.018629328261471744,
            0.016127160833601845,
            -0.0065763048408752625,
            -0.0062516602144153813,
            -0.0066854410813729738,
            -0.006795042765975725,
            -0.0061979521655231946,
            -0.0068500190525968979,
            -0.0085161753939688757,
            -0.0082113868538908931,
            -0.007711352882607444,
            0.0022214555093856255,
            0.0028172667713839599,
            0.01017988382872822,
            -0.0022379781408417817,
            0.011993823613747527,
            -0.00053553645193342545
          ],
        "leaf_weights":
          [
            1998,
            2151
          ],
        "splits":
          [
            {
              "border":1.5,
              "float_feature_index":5,
              "split_index":399,
              "split_type":"FloatFeature"
            }
          ]
      },
      {
        "leaf_values":
          [
            0.0046586614570240598,
            0.018314269105558983,
            0.015907047413135332,
            -0.0064969900879416238,
            -0.0061694633848626028,
            -0.0066071420467639598,
            -0.0067177875070604468,
            -0.0061152986422582344,
            -0.0067732963068194664,
            -0.0084758004206603472,
            -0.0081681566502652923,
            -0.0076638371865591108,
            0.0022516119047019975,
            0.002840190174413591,
            0.010055780129621147,
            -0.0021759144424317719,
            0.01181714926903912,
            -0.00048102277783098794
          ],
        "leaf_weights":
          [
            1998,
            2151
          ],
        "splits":
          [
            {
              "border":1.5,
              "float_feature_index":5,
              "split_index":399,
              "split_type":"FloatFeature"
            }
          ]
      },
      {
        "leaf_values":
          [
            0.0047146918615377014,
            0.018011846072995542,
            0.015694382014088896,
            -0.0064205722799719825,
            -0.0060901412749214505,
            -0.0065317486897660164,
            -0.006643447359877667,
            -0.0060355166835916784,
            -0.0066994936604874425,
            -0.0084366661288748975,
            -0.0081261422044814069,
            -0.0076175069595995713,
            0.0022806272895698342,
            0.0028620751752471809,
            0.0099348305987873812,
            -0.0021151634965823865,
            0.011645796121897324,
            -0.00042785039596927464
          ],
        "leaf_weights":
          [
            1998,
            2151
          ],
        "splits":
          [
            {
              "border":1.5,
              "float_feature_index":5,
              "split_index":399,
              "split_type":"FloatFeature"
            }
          ]
      },
      {
        "leaf_values":
          [
            0.0047681761403917458,
            0.017721322712343515,
            0.015488799652039219,
            -0.0063468934688377518,
            -0.0060135358372789055,
            -0.0064591031201630747,
            -0.0065718645062010647,
            -0.005958448235327353,
            -0.0066284533369770325,
            -0.0083987214141610384,
            -0.0080852922358640895,
            -0.0075723108342474347,
            0.002308551039735215,
            0.0028829693535864674,
            0.0098169180523366949,
            -0.0020556752291537939,
            0.011479529591493445,
            -0.00037596832371825507
          ],
        "leaf_weights":
          [
            1998,
            2151
          ],
        "splits":
          [
            {
              "border":1.5,
              "float_feature_index":5,
              "split_index":399,
              "split_type":"FloatFeature"
            }
          ]
      },
      {
        "leaf_values":
          [
            0.0048192569721490774,
            0.017442018502605811,
            0.015289958559637405,
            -0.0062758070267281973,
            -0.0059395003451655406,
            -0.0063890587683586219,
            -0.0065028924489696034,
            -0.0058839465639777613,
            -0.0065600288812048529,
            -0.0083619179357194828,
            -0.0080455582266469889,
            -0.0075282002077236062,
            0.0023354298024729513,
            0.0029029176003875158,
            0.0097019309815607312,
            -0.0019974023141653137,
            0.011318128627336837,
            -0.00032532832752387705
          ],
        "leaf_weights":
          [
            1998,
            2151
          ],
        "splits":
          [
            {
              "border":1.5,
              "float_feature_index":5,
              "split_index":399,
              "split_type":"FloatFeature"
            }
          ]
      },
      {
        "leaf_values":
          [
            0.0048680668107601759,
            0.017173303644384099,
            0.015097538380268781,
            -0.006207176643278709,
            -0.0058678983895634361,
            -0.0063214793824827075,
            -0.0064363950093752342,
            -0.0058118752539844595,
            -0.0064940841567073561,
            -0.0083262099302776112,
            -0.0080068942358722719,
            -0.0074851290559205643,
            0.0023613076812917014,
            0.0029219623014455176,
            0.0095897632157863882,
            -0.00194029998794981,
            0.011161384748923779,
            -0.00027588473744176347
          ],
        "leaf_weights":
          [
            1998,
            2151
          ],
        "splits":
          [
            {
              "border":1.5,
              "float_feature_index":5,
              "split_index":399,
              "split_type":"FloatFeature"
            }
          ]
      },
      {
        "leaf_values":
          [
            0.0049147287787694414,
            0.016914594422264166,
            0.014911238526486207,
            -0.0061408754279173331,
            -0.0057986029816257155,
            -0.0062562381307174923,
            -0.0063722454291698788,
            -0.0057421073101527227,
            -0.0064304924479418541,
            -0.0082915540409498473,
            -0.0079692567282752726,
            -0.007443053762359886,
            0.0023862264057412323,
            0.0029401435061271208,
            0.0094803136087148448,
            -0.0018843258782672138,
            0.011009101165876651,
            -0.00022759427661400082
          ],
        "leaf_weights":
          [
            1998,
            2151
          ],
        "splits":
          [
            {
              "border":1.5,
              "float_feature_index":5,
              "split_index":399,
              "split_type":"FloatFeature"
            }
          ]
      },
      {
        "leaf_values":
          [
            0.0049593574684278306,
            0.016665349066736636,
            0.014730776686166073,
            -0.0060767851046657478,
            -0.0057314957475485375,
            -0.0061932167960790496,
            -0.0063103255654344981,
            -0.0056745243525354724,
            -0.0063691356550486288,
            -0.008257909159585913,
            -0.0079326044166565107,
            -0.0074019329606309515,
            0.0024102254878172608,
            0.0029574990827359376,
            0.0093734857464862868,
            -0.0018294398468836346,
            0.01086109197092276,
            -0.00018041590419318209
          ],
        "leaf_weights":
          [
            1998,
            2151
          ],
        "splits":
          [
            {
              "border":1.5,
              "float_feature_index":5,
              "split_index":399,
              "split_type":"FloatFeature"
            }
          ]
      },
      {
        "leaf_values":
          [
            0.0050020596615133186,
            0.01642506405388228,
            0.014555887461118596,
            -0.0060147952885549793,
            -0.0056664662050526175,
            -0.0061323050528146166,
            -0.0062505251669601001,
            -0.0056090158929262158,
            -0.006309903570226174,
            -0.008225236281442224,
            -0.007896898116576569,
            -0.0073617273891563653,
            0.0024333423661158046,
            0.0029740648616672707,
            0.0092691876756838924,
            -0.0017756038444537519,
            0.010717181398714186,
            -0.00013431067055457449
          ],
        "leaf_weights":
          [
            1998,
            2151
          ],
        "splits":
          [
            {
              "border":1.5,
              "float_feature_index":5,
              "split_index":399,
              "split_type":"FloatFeature"
            }
          ]
      },
      {
        "leaf_values":
          [
            0.0050429349775141311,
            0.016193270789917266,
            0.014386321124928393,
            -0.0059548028339617715,
            -0.0056034111117837316,
            -0.0060733998147229334,
            -0.0061927412225552623,
            -0.0055454786832714121,
            -0.0062526932260356565,
            -0.0081934983710154098,
            -0.0078621006122139223,
            -0.0073223997571156014,
            0.0024556125388967001,
            0.0029898747675060166,
            0.0091673316497666128,
            -0.0017227817765474178,
            0.010577203144358598,
            -8.9241583638977474e-05
          ],
        "leaf_weights":
          [
            1998,
            2151
          ],
        "splits":
          [
            {
              "border":1.5,
              "float_feature_index":5,
              "split_index":399,
              "split_type":"FloatFeature"
            }
          ]
      },
      {
        "leaf_values":
          [
            0.0050820764581833849,
            0.015969532634503285,
            0.014221842487911135,
            -0.0058967112468323625,
            -0.0055422338775962107,
            -0.0060164046473606654,
            -0.0061368773732407463,
            -0.0054838161279641444,
            -0.006197408307588529,
            -0.0081626602381012804,
            -0.007828176532444912,
            -0.007283914620592997,
            0.0024770696869856391,
            0.0030049609409976592,
            0.0090678338924524791,
            -0.0016709393798833856,
            0.010440999736071892,
            -4.517348548727451e-05
          ],
        "leaf_weights":
          [
            1998,
            2151
          ],
        "splits":
          [
            {
              "border":1.5,
              "float_feature_index":5,
              "split_index":399,
              "split_type":"FloatFeature"
            }
          ]
      },
      {
        "leaf_values":
          [
            0.0051195710958639772,
            0.015753442223353221,
            0.014062229858860029,
            -0.0058404301533639263,
            -0.0054828440332925507,
            -0.0059612292367105029,
            -0.0060828433809041529,
            -0.0054239377525953326,
            -0.0061439586212000009,
            -0.0081326884231227303,
            -0.0077950922361959508,
            -0.0072462382679971517,
            0.0024977457874644296,
            0.0030193538518382195,
            0.0089706143768021607,
            -0.0016200441078211159,
            0.010308421957062212,
            -2.0729380225166212e-06
          ],
        "leaf_weights":
          [
            1998,
            2151
          ],
        "splits":
          [
            {
              "border":1.5,
              "float_feature_index":5,
              "split_index":399,
              "split_type":"FloatFeature"
            }
          ]
      },
      {
        "leaf_values":
          [
            0.0051555003116160805,
            0.015544619055406599,
            0.013907274093954276,
            -0.0057858748190892919,
            -0.0054251567497642832,
            -0.0059077889082484163,
            -0.0060305546473593419,
            -0.0053657587231024416,
            -0.0060922596134422207,
            -0.0081035510909656851,
            -0.0077628157063019711,
            -0.0072093386139830996,
            0.0025176712189080965,
            0.0030330824030434557,
            0.0088755966187776363,
            -0.0015700650243458529,
            0.010179328312158351,
            4.0091882688816888e-05
          ],
        "leaf_weights":
          [
            1998,
            2151
          ],
        "splits":
          [
            {
              "border":1.5,
              "float_feature_index":5,
              "split_index":399,
              "split_type":"FloatFeature"
            }
          ]
      },
      {
        "leaf_values":
          [
            0.0051899403887806089,
            0.015342707314733004,
            0.013756777724605896,
            -0.0057329657127111085,
            -0.0053690924018805391,
            -0.0058560041907670113,
            -0.0059799317781566103,
            -0.0053091994096703989,
            -0.0060422319349529366,
            -0.0080752179325487578,
            -0.0077313164510981131,
            -0.0071731851011123194,
            0.0025368748589384054,
            0.0030461740276625684,
            0.0087827074842280195,
            -0.0015209727057760097,
            0.010053584535244596,
            8.1351284462740433e-05
          ],
        "leaf_weights":
          [
            1998,
            2151
          ],
        "splits":
          [
            {
              "border":1.5,
              "float_feature_index":5,
              "split_index":399,
              "split_type":"FloatFeature"
            }
          ]
      },
      {
        "leaf_values":
          [
            0.0052229628666478562,
            0.015147373900831746,
            0.01361055415664837,
            -0.0056816281100018117,
            -0.0053145761724402475,
            -0.0058058004202586489,
            -0.0059309001864579769,
            -0.0052541849906908872,
            -0.0059938010443065081,
            -0.008047660073551309,
            -0.0077005654131700619,
            -0.0071377486086666225,
            0.002555384174665633,
            0.0030586547784077745,
            0.0086918770082293553,
            -0.0014727391496187903,
            0.0099310631338261571,
            0.00012173414988797192
          ],
        "leaf_weights":
          [
            1998,
            2151
          ],
        "splits":
          [
            {
              "border":1.5,
              "float_feature_index":5,
              "split_index":399,
              "split_type":"FloatFeature"
            }
          ]
      },
      {
        "leaf_values":
          [
            0.0052546348985640845,
            0.01495830664455546,
            0.013468426934288766,
            -0.0056317917334126662,
            -0.0052615376918336357,
            -0.005757107379514779,
            -0.0058833897326254492,
            -0.0052006450924344657,
            -0.0059468968476008187,
            -0.0080208499895955288,
            -0.007670534884560095,
            -0.0071030013679197748,
            0.0025732253067171076,
            0.0030705494108984933,
            0.008603038225968378,
            -0.0014253376898726653,
            0.0098116429676078191,
            0.00016126802077806636
          ],
        "leaf_weights":
          [
            1998,
            2151
          ],
        "splits":
          [
            {
              "border":1.5,
              "float_feature_index":5,
              "split_index":399,
              "split_type":"FloatFeature"
            }
          ]
      },
      {
        "leaf_values":
          [
            0.0052850195780781142,
            0.014775212689463786,
            0.013330229062733314,
            -0.0055833904237872455,
            -0.0052099107098042925,
            -0.0057098589698229901,
            -0.0058373343959111637,
            -0.0051485134608212201,
            -0.0059014533701431194,
            -0.007994761427443587,
            -0.0076411984279866714,
            -0.007068916883421701,
            0.0025904231472914105,
            0.0030818814609557678,
            0.0085161270142398403,
            -0.0013787429183361286,
            0.0096952088580718847,
            0.00019997917662755802
          ],
        "leaf_weights":
          [
            1998,
            2151
          ],
        "splits":
          [
            {
              "border":1.5,
              "float_feature_index":5,
              "split_index":399,
              "split_type":"FloatFeature"
            }
          ]
      },
      {
        "leaf_values":
          [
            0.0053141762364887126,
            0.01459781702107432,
            0.013195802384208264,
            -0.0055363618407938339,
            -0.0051596327959329679,
            -0.0056639929113897732,
            -0.0057926719748696781,
            -0.0050977276619121837,
            -0.0058574084568608674,
            -0.0079693693316542531,
            -0.0076125308035210788,
            -0.0070354698597410977,
            0.0026070014127921532,
            0.0030926733165015509,
            0.0084310819428568308,
            -0.001332930611366022,
            0.0095816512264923649,
            0.00023789270762812349
          ],
        "leaf_weights":
          [
            1998,
            2151
          ],
        "splits":
          [
            {
              "border":1.5,
              "float_feature_index":5,
              "split_index":399,
              "split_type":"FloatFeature"
            }
          ]
      },
      {
        "leaf_values":
          [
            0.0053421607146162025,
            0.014425861128411686,
            0.013064997002481244,
            -0.005490647189255007,
            -0.0051106450660135068,
            -0.0056194504696559103,
            -0.0057493438136660786,
            -0.0050482288082960057,
            -0.0058147034986074722,
            -0.0079446497763081443,
            -0.0075845079003400507,
            -0.0070026361332803985,
            0.0026229827114221198,
            0.0031029462844411092,
            0.0083478441352060426,
            -0.0012878776617051837,
            0.0094708657579473821,
            0.00027503258262340837
          ],
        "leaf_weights":
          [
            1998,
            2151
          ],
        "splits":
          [
            {
              "border":1.5,
              "float_feature_index":5,
              "split_index":399,
              "split_type":"FloatFeature"
            }
          ]
      },
      {
        "leaf_values":
          [
            0.0053690256114270873,
            0.014259101784247059,
            0.012937670751630584,
            -0.0054461909687237514,
            -0.0050628919316786864,
            -0.0055761762048613913,
            -0.0057072945516314184,
            -0.0049999613087214501,
            -0.0057732831817163032,
            -0.0079205799013721458,
            -0.0075571066731094936,
            -0.0069703926087253468,
            0.0026383886061755093,
            0.0031127206529663891,
            0.0082663571373385054,
            -0.0012435620149363557,
            0.0093627530892096203,
            0.0003114217124466558
          ],
        "leaf_weights":
          [
            1998,
            2151
          ],
        "splits":
          [
            {
              "border":1.5,
              "float_feature_index":5,
              "split_index":399,
              "split_type":"FloatFeature"
            }
          ]
      },
      {
        "leaf_values":
          [
            0.0053948205117583508,
            0.01409730993190042,
            0.012813688705128588,
            -0.0054029407440600525,
            -0.005016320871023109,
            -0.0055341177426102206,
            -0.0056664718938212819,
            -0.0049528726387286434,
            -0.0057330952585549991,
            -0.0078971378533145547,
            -0.0075303050826237439,
            -0.0069387171997493296,
            0.0026532396736063703,
            0.0031220157496571477,
            0.0081865667950099096,
            -0.0011999626101874307,
            0.0092572185185802874,
            0.00034708200901566757
          ],
        "leaf_weights":
          [
            1998,
            2151
          ],
        "splits":
          [
            {
              "border":1.5,
              "float_feature_index":5,
              "split_index":399,
              "split_type":"FloatFeature"
            }
          ]
      },
      {
        "leaf_values":
          [
            0.0054195921951209411,
            0.013940269667860574,
            0.012692922721687342,
            -0.005360846935016041,
            -0.0049708822182353727,
            -0.0054932255634432443,
            -0.005626826400579427,
            -0.0049069131302905541,
            -0.0056940903370891966,
            -0.0078743027297024787,
            -0.0075040820404283972,
            -0.0069075887736976737,
            0.0026675555586417946,
            0.0031308499956476852,
            0.0081084211380588727,
            -0.0011570593248134914,
            0.0091541717358260537,
            0.000382034440457091
          ],
        "leaf_weights":
          [
            1998,
            2151
          ],
        "splits":
          [
            {
              "border":1.5,
              "float_feature_index":5,
              "split_index":399,
              "split_type":"FloatFeature"
            }
          ]
      },
      {
        "leaf_values":
          [
            0.0054433848274769644,
            0.013787777310826588,
            0.012575251024795125,
            -0.0053198626229289305,
            -0.0049265289703374696,
            -0.0054534528095183587,
            -0.0055883112942107767,
            -0.0048620357785594598,
            -0.0056562216875534685,
            -0.0078520545274089939,
            -0.0074784173570483798,
            -0.0068769870998836051,
            0.0026813550258133344,
            0.0031392409562313824,
            0.0080318702716837484,
            -0.0011148329226845612,
            0.0090535265706807849,
            0.00041629908263426599
          ],
        "leaf_weights":
          [
            1998,
            2151
          ],
        "splits":
          [
            {
              "border":1.5,
              "float_feature_index":5,
              "split_index":399,
              "split_type":"FloatFeature"
            }
          ]
      },
      {
        "leaf_values":
          [
            0.0054662401375530321,
            0.01363964054868623,
            0.012460557813034246,
            -0.0052799433729541576,
            -0.0048832166094641711,
            -0.0054147551068345536,
            -0.0055508822811972964,
            -0.0048181960641545188,
            -0.0056194450646642182,
            -0.0078303740942182332,
            -0.0074532916936185627,
            -0.0068468928012805144,
            0.0026946560071136908,
            0.0031472053881101887,
            0.0079568662740848069,
            -0.0010732650058684335,
            0.0089552007583804643,
            0.00044989516728625236
          ],
        "leaf_weights":
          [
            1998,
            2151
          ],
        "splits":
          [
            {
              "border":1.5,
              "float_feature_index":5,
              "split_index":399,
              "split_type":"FloatFeature"
            }
          ]
      },
      {
        "leaf_values":
          [
            0.00548819757907413,
            0.013495677655879302,
            0.012348732898541541,
            -0.0052410470704470392,
            -0.0048409029392903107,
            -0.0053770904015993451,
            -0.0055144973885585136,
            -0.0047753517895974288,
            -0.0055837185439796457,
            -0.0078092430834846944,
            -0.007428686516566585,
            -0.0068172873092700878,
            0.0027074756468221431,
            0.0031547592836304377,
            0.0078833631001271817,
            -0.0010323379693664377,
            0.0088591157209837994,
            0.00048284112712150269
          ],
        "leaf_weights":
          [
            1998,
            2151
          ],
        "splits":
          [
            {
              "border":1.5,
              "float_feature_index":5,
              "split_index":399,
              "split_type":"FloatFeature"
            }
          ]
      },
      {
        "leaf_values":
          [
            0.0055092944803022195,
            0.013355716774550132,
            0.012239671371368761,
            -0.0052031337701054685,
            -0.0047995479342193385,
            -0.0053404188093606874,
            -0.0054791168129746945,
            -0.0047334629285075754,
            -0.0055490023710206829,
            -0.0077886439117378871,
            -0.0074045840552425558,
            -0.0067881528213360942,
            0.0027198303434050708,
            0.0031619179121126517,
            0.0078113164905024308,
            -0.00099203495879141273,
            0.0087651963631425606,
            0.00051515463797566967
          ],
        "leaf_weights":
          [
            1998,
            2151
          ],
        "splits":
          [
            {
              "border":1.5,
              "float_feature_index":5,
              "split_index":399,
              "split_type":"FloatFeature"
            }
          ]
      },
      {
        "leaf_values":
          [
            0.0055295661819616095,
            0.01321959525344229,
            0.012133273287543702,
            -0.005166165556785225,
            -0.0047591136002444615,
            -0.0053047024758113466,
            -0.0054447027815849288,
            -0.0046924914864729175,
            -0.0055152588220665688,
            -0.007768559718918237,
            -0.0073809672621792891,
            -0.0067594722613889373,
            0.0027317357888065924,
            0.0031686958585879074,
            0.0077406838861245643,
            -0.00095233983067559186,
            0.008673370881309905,
            0.00054685265834624797
          ],
        "leaf_weights":
          [
            1998,
            2151
          ],
        "splits":
          [
            {
              "border":1.5,
              "float_feature_index":5,
              "split_index":399,
              "split_type":"FloatFeature"
            }
          ]
      },
      {
        "leaf_values":
          [
            0.0055490461646412696,
            0.013087159039256792,
            0.012029443378966675,
            -0.00513010641689534,
            -0.0047195638463894529,
            -0.005269905448171291,
            -0.0054112194233613652,
            -0.0046524013724967665,
            -0.0054824520755294625,
            -0.0077489743310671932,
            -0.0073578197758078839,
            -0.0067312292425460362,
            0.0027432070053032436,
            0.0031751070601133764,
            0.0076714243473966813,
            -0.00091323711523135127,
            0.0085835705853589198,
            0.00057795146648077474
          ],
        "leaf_weights":
          [
            1998,
            2151
          ],
        "splits":
          [
            {
              "border":1.5,
              "float_feature_index":5,
              "split_index":399,
              "split_type":"FloatFeature"
            }
          ]
      },
      {
        "leaf_values":
          [
            0.0055677661664912297,
            0.012958262115561309,
            0.011928090783271712,
            -0.0050949221195506879,
            -0.00468086436590677,
            -0.0052359935563292903,
            -0.0053786326502425711,
            -0.0046131582802037933,
            -0.0054505480930834875,
            -0.0077298722253539894,
            -0.0073351258855098812,
            -0.0067034080322468841,
            0.0027542583800393601,
            0.0031811648397876719,
            0.0076034984779733087,
            -0.00087471198144786235,
            0.0084957297316184833,
            0.00060846669513550515
          ],
        "leaf_weights":
          [
            1998,
            2151
          ],
        "splits":
          [
            {
              "border":1.5,
              "float_feature_index":5,
              "split_index":399,
              "split_type":"FloatFeature"
            }
          ]
      },
      {
        "leaf_values":
          [
            0.0055857562922393697,
            0.012832765985158747,
            0.01182912879224962,
            -0.0050605801064543335,
            -0.0046429825262055023,
            -0.005202934302713267,
            -0.0053469100469971803,
            -0.0045747295777766525,
            -0.0054195145095293938,
            -0.0077112384972074016,
            -0.0073128704987750351,
            -0.0066759935194782467,
            0.0027649036974741535,
            0.0031868819386894802,
            0.0075368683527924684,
            -0.0008367502042924053,
            0.0084097853665476563,
            0.00063841336423530555
          ],
        "leaf_weights":
          [
            1998,
            2151
          ],
        "splits":
          [
            {
              "border":1.5,
              "float_feature_index":5,
              "split_index":399,
              "split_type":"FloatFeature"
            }
          ]
      },
      {
        "leaf_values":
          [
            0.0056030451141078274,
            0.012710539191875415,
            0.011732474617210215,
            -0.0050270493899252913,
            -0.004605887266924273,
            -0.0051706967603061607,
            -0.0053160207692309579,
            -0.0045370842060351996,
            -0.0053893205307972529,
            -0.0076930588294282917,
            -0.0072910391103396142,
            -0.0066489711839726852,
            0.0027751561698653965,
            0.003192270545870068,
            0.007471497450081451,
            -0.00079933813388989464,
            0.0083256771802454783,
            0.00066780591156083045
          ],
        "leaf_weights":
          [
            1998,
            2151
          ],
        "splits":
          [
            {
              "border":1.5,
              "float_feature_index":5,
              "split_index":399,
              "split_type":"FloatFeature"
            }
          ]
      },
      {
        "leaf_values":
          [
            0.0056196597653868849,
            0.012591456878375394,
            0.011638049170031705,
            -0.0049943004583110281,
            -0.004569549005390367,
            -0.0051392514780463239,
            -0.0052859354487805052,
            -0.0045001925839041881,
            -0.0053599368393405823,
            -0.007675319463155055,
            -0.0072696177731791092,
            -0.006622327067269479,
            0.002785028465912557,
            0.0031973423265180315,
            0.0074073505870680409,
            -0.00076246266655802936,
            0.0082433473690669418,
            0.00069665822158641053
          ],
        "leaf_weights":
          [
            1998,
            2151
          ],
        "splits":
          [
            {
              "border":1.5,
              "float_feature_index":5,
              "split_index":399,
              "split_type":"FloatFeature"
            }
          ]
      },
      {
        "leaf_values":
          [
            0.0056356260272781115,
            0.01247540037687519,
            0.011545776858689854,
            -0.0049623051881727085,
            -0.0045339395488499332,
            -0.005108570393000591,
            -0.0052566261058777063,
            -0.0044640265206501847,
            -0.0053313355062979129,
            -0.0076580071705249497,
            -0.0072485930711962071,
            -0.0065960477454654965,
            0.002794532737719427,
            0.0032021084484584262,
            0.0073443938591979657,
            -0.00072611121753678892,
            0.0081627405067267022,
            0.00072498365262898276
          ],
        "leaf_weights":
          [
            1998,
            2151
          ],
        "splits":
          [
            {
              "border":1.5,
              "float_feature_index":5,
              "split_index":399,
              "split_type":"FloatFeature"
            }
          ]
      },
      {
        "leaf_values":
          [
            0.0056509684096047921,
            0.012362256829975334,
            0.011455585396207018,
            -0.004931036762639957,
            -0.0044990320128689438,
            -0.0050786267487070939,
            -0.0052280660674843549,
            -0.0044285591342903023,
            -0.005303489909826104,
            -0.0076411092289590428,
            -0.007227952093533707,
            -0.0065701203035926541,
            0.0028036806461468446,
            0.0032065796070536614,
            0.0072825945825939807,
            -0.00069027169534134104,
            0.0080838034232369495,
            0.0007527950623790905
          ],
        "leaf_weights":
          [
            1998,
            2151
          ],
        "splits":
          [
            {
              "border":1.5,
              "float_feature_index":5,
              "split_index":399,
              "split_type":"FloatFeature"
            }
          ]
      },
      {
        "leaf_values":
          [
            0.0056657102257956331,
            0.012251918838964001,
            0.011367405621908159,
            -0.0049004695955287862,
            -0.0044648007454971845,
            -0.0050493950192807627,
            -0.0052002298913902617,
            -0.0043937647757636171,
            -0.005276374659195877,
            -0.0076246133968929184,
            -0.0072076824103325552,
            -0.00654453231144074,
            0.0028124833847318806,
            0.0032107660486849214,
            0.0072219212396224938,
            -0.00065493247756182656,
            0.0080064850912004264,
            0.00078010483199019809
          ],
        "leaf_weights":
          [
            1998,
            2151
          ],
        "splits":
          [
            {
              "border":1.5,
              "float_feature_index":5,
              "split_index":399,
              "split_type":"FloatFeature"
            }
          ]
      },
      {
        "leaf_values":
          [
            0.0056798736626597086,
            0.012144284137348423,
            0.011281171334127352,
            -0.0048705792607010023,
            -0.0044312212566735747,
            -0.0050208508387598327,
            -0.0051730932955507455,
            -0.0043596189583440378,
            -0.0052499655241288043,
            -0.0076085078909562979,
            -0.0071877720499397418,
            -0.0065192718008300551,
            0.0028209517021695898,
            0.003214677592808289,
            0.0071623434272785978,
            -0.00062008238811162974,
            0.0079307365188426276,
            0.00080692488872441371
          ],
        "leaf_weights":
          [
            1998,
            2151
          ],
        "splits":
          [
            {
              "border":1.5,
              "float_feature_index":5,
              "split_index":399,
              "split_type":"FloatFeature"
            }
          ]
      },
      {
        "leaf_values":
          [
            0.0056934798454437241,
            0.012039255287603783,
            0.011196819133591855,
            -0.0048413424261736782,
            -0.0043982701523828972,
            -0.0049929709352039909,
            -0.0051466330921769972,
            -0.0043260982918044708,
            -0.0052242393688844389,
            -0.007592781364379764,
            -0.0071682094773445806,
            -0.0064943272441119202,
            0.0028290959235796834,
            0.003218323652806848,
            0.0071038318083420562,
            -0.00058571067570481288,
            0.0078565106494457165,
            0.00083326672737549159
          ],
        "leaf_weights":
          [
            1998,
            2151
          ],
        "splits":
          [
            {
              "border":1.5,
              "float_feature_index":5,
              "split_index":399,
              "split_type":"FloatFeature"
            }
          ]
      },
      {
        "leaf_values":
          [
            0.0057065488983597517,
            0.011936739399054264,
            0.011114288276518652,
            -0.0048127367927892862,
            -0.0043659250733715637,
            -0.0049657330693505921,
            -0.0051208271263827147,
            -0.0042931804211390695,
            -0.0051991740909063692,
            -0.0075774228866801489,
            -0.0071489835738929699,
            -0.0064696875339480975,
            0.0028369259705045401,
            0.0032217132555865447,
            0.0070463580650049996,
            -0.00055180699361175468,
            0.0077837622666115363,
            0.0008591414304162737
          ],
        "leaf_weights":
          [
            1998,
            2151
          ],
        "splits":
          [
            {
              "border":1.5,
              "float_feature_index":5,
              "split_index":399,
              "split_type":"FloatFeature"
            }
          ]
      },
      {
        "leaf_values":
          [
            0.0057191000011576499,
            0.0118366478654047,
            0.011033520536943934,
            -0.0047847410368685641,
            -0.0043341646378471446,
            -0.0049391159772536001,
            -0.0050956542188172792,
            -0.0042608439692714099,
            -0.0051747485634510712,
            -0.0075624219244112461,
            -0.0071300836180674936,
            -0.0064453419641546505,
            0.0028444513798539005,
            0.0032248550601292813,
            0.0069898948549546565,
            -0.00051836138048084806,
            0.0077124479050941887,
            0.00088455968708774785
          ],
        "leaf_weights":
          [
            1998,
            2151
          ],
        "splits":
          [
            {
              "border":1.5,
              "float_feature_index":5,
              "split_index":399,
              "split_type":"FloatFeature"
            }
          ]
      },
      {
        "leaf_values":
          [
            0.0057311514418595362,
            0.011738896120158613,
            0.010954460077431952,
            -0.0047573347567282766,
            -0.0043029683880442728,
            -0.0049130993167917194,
            -0.0050710941121601292,
            -0.0042290684836271122,
            -0.0051509425820834035,
            -0.007547768323036122,
            -0.0071114992673904191,
            -0.0064212802116702669,
            0.0028516813217350245,
            0.0032277573749431103,
            0.0069344157696374833,
            -0.00048536424228354442,
            0.0076425257666980764,
            0.00090953181136774219
          ],
        "leaf_weights":
          [
            1998,
            2151
          ],
        "splits":
          [
            {
              "border":1.5,
              "float_feature_index":5,
              "split_index":399,
              "split_type":"FloatFeature"
            }
          ]
      },
      {
        "leaf_values":
          [
            0.0057427206660649825,
            0.011643403408630279,
            0.010877053327691254,
            -0.0047304984226560114,
            -0.0042723167402448298,
            -0.0048876636176256334,
            -0.0050471274210747664,
            -0.0041978343861604596,
            -0.0051277368146255978,
            -0.0075334522897360801,
            -0.0070932205412628183,
            -0.0063974923194596751,
            0.0028586246163584085,
            0.0032304281745967238,
            0.0068798952946927186,
            -0.00045280633519624531,
            0.0075739556410215538,
            0.00093406775900688741
          ],
        "leaf_weights":
          [
            1998,
            2151
          ],
        "splits":
          [
            {
              "border":1.5,
              "float_feature_index":5,
              "split_index":399,
              "split_type":"FloatFeature"
            }
          ]
      },
      {
        "leaf_values":
          [
            0.0057538243230610929,
            0.011550092575229806,
            0.010801248870512739,
            -0.0047042133301010884,
            -0.0042421909380183443,
            -0.0048627902343798641,
            -0.0050237355853762532,
            -0.0041671229266042296,
            -0.0051051127543249447,
            -0.0075194643771943903,
            -0.0070752378047802805,
            -0.0063739686803931583,
            0.0028652897499751931,
            0.003232875115297571,
            0.006826308772327816,
            -0.00042067874945827399,
            0.0075066988306285477,
            0.00095817714359511437
          ],
        "leaf_weights":
          [
            1998,
            2151
          ],
        "splits":
          [
            {
              "border":1.5,
              "float_feature_index":5,
              "split_index":399,
              "split_type":"FloatFeature"
            }
          ]
      },
      {
        "leaf_values":
          [
            0.0057644783089328723,
            0.011458889864793501,
            0.010726997334478282,
            -0.0046784615558934728,
            -0.0042125730084866244,
            -0.0048384613028438139,
            -0.0050009008262268829,
            -0.0041369161387384817,
            -0.0050830526760445556,
            -0.0075057954681982232,
            -0.0070575417533651486,
            -0.0063507000219445451,
            0.0028716848900066975,
            0.0032351055496704141,
            0.0067736323656224741,
            -0.000388972894049732,
            0.0074407180804574617,
            0.00098186925181183225
          ],
        "leaf_weights":
          [
            1998,
            2151
          ],
        "splits":
          [
            {
              "border":1.5,
              "float_feature_index":5,
              "split_index":399,
              "split_type":"FloatFeature"
            }
          ]
      },
      {
        "leaf_values":
          [
            0.0057746978069730401,
            0.011369724736971022,
            0.010654251293056458,
            -0.0046532259171796755,
            -0.0041834457213086457,
            -0.0048146596988981475,
            -0.0049786061050501188,
            -0.0041071967993857204,
            -0.005061539595178308,
            -0.0074924367611154796,
            -0.0070401233982785435,
            -0.0063276773917655431,
            0.0028778178993049126,
            0.0032371265406772832,
            0.0067218430245367475,
            -0.00035768048224503257,
            0.0073759775110802586,
            0.0010051530578033085
          ],
        "leaf_weights":
          [
            1998,
            2151
          ],
        "splits":
          [
            {
              "border":1.5,
              "float_feature_index":5,
              "split_index":399,
              "split_type":"FloatFeature"
            }
          ]
      },
      {
        "leaf_values":
          [
            0.0057844973254946586,
            0.011282529692581049,
            0.010582965169545188,
            -0.0046284899329827912,
            -0.0041547925502882603,
            -0.0047913690000565218,
            -0.0049568350850663651,
            -0.0040779483900239468,
            -0.0050405572291804335,
            -0.0074793797560813733,
            -0.0070229740528346902,
            -0.0063048921439664857,
            0.0028836963497144018,
            0.0032389448748472035,
            0.0066709184536464239,
            -0.00032679351787595444,
            0.0073124425556854774,
            0.0010280372368582482
          ],
        "leaf_weights":
          [
            1998,
            2151
          ],
        "splits":
          [
            {
              "border":1.5,
              "float_feature_index":5,
              "split_index":399,
              "split_type":"FloatFeature"
            }
          ]
      },
      {
        "leaf_values":
          [
            0.0057938907333312537,
            0.011197240111143219,
            0.010513095147575239,
            -0.0046042377880915119,
            -0.0041265976373114121,
            -0.0047685734493443958,
            -0.004935572095156421,
            -0.0040491550607308245,
            -0.0050200899614303374,
            -0.0074666162419389,
            -0.0070060853193796126,
            -0.0062823359261569419,
            0.0028893275348845305,
            0.0032405670747652142,
            0.0066208370814101383,
            -0.00029630428235275007,
            0.0072500799004519096,
            0.0010505301783258788
          ],
        "leaf_weights":
          [
            1998,
            2151
          ],
        "splits":
          [
            {
              "border":1.5,
              "float_feature_index":5,
              "split_index":399,
              "split_type":"FloatFeature"
            }
          ]
      },
      {
        "leaf_values":
          [
            0.0058028912931502516,
            0.011113794098715412,
            0.010444599086752339,
            -0.0045804542991564586,
            -0.0040988457584909639,
            -0.0047462579213791937,
            -0.0049148020959369435,
            -0.0040208015963371403,
            -0.0050001228073021731,
            -0.0074541382838459328,
            -0.0069894490769292069,
            -0.0062600006671499307,
            0.0028947184824228032,
            0.0032419994109115276,
            0.0065715780309308089,
            -0.00026620532235099219,
            0.0071888574281479588,
            0.0010726399978748039
          ],
        "leaf_weights":
          [
            1998,
            2151
          ],
        "splits":
          [
            {
              "border":1.5,
              "float_feature_index":5,
              "split_index":399,
              "split_type":"FloatFeature"
            }
          ]
      },
      {
        "leaf_values":
          [
            0.0058115116926638804,
            0.011032132345213065,
            0.010377436443033858,
            -0.0045571248829079248,
            -0.0040715222924341543,
            -0.0047244078905729486,
            -0.0048945106479499319,
            -0.0039928733846995527,
            -0.0049806413823538752,
            -0.0074419382115046553,
            -0.0069730574694336859,
            -0.0062378785652875187,
            0.0028998759654344777,
            0.0032432479128948208,
            0.0065231210921310777,
            -0.00023648943812223778,
            0.0071287441647584857,
            0.0010943745491312946
          ],
        "leaf_weights":
          [
            1998,
            2151
          ],
        "splits":
          [
            {
              "border":1.5,
